{"HiddenLayer":[2.1935417625433164e-50,1,1,1.2745827839615595e-116,1,1,1,1,5.702379332311003e-186,1,1.2101213926926563e-54,4.8144575379278e-202,1.2650740322494346e-128,1,1,1,1],"InputLayer":[500,50.74,51,1],"OutputLayer":[0.3022939134441466,0.5306863502276274,0.1356904463242008,0.00048396530657966437],"WeightHidden":[[-0.20679267323411676,-0.03300084543213,-0.1954748906613163,0.6962817689788798],[0.7813418134924577,0.7598318739700964,0.6809838468042375,0.30160149905685896],[0.9001724164107194,0.45934922319981797,-0.3158720416290032,0.19475468496234005],[-0.4249404023364489,-0.8366997583162534,-0.21472646104028337,-0.981855472269618],[0.32215678449315477,0.38214968618379097,-0.3932465863252106,-0.16643810328791375],[0.7184162657601776,0.894659376225164,0.4390373266048784,0.315231434909677],[0.674261318732718,-0.42170588758682004,-0.9718467358149137,-0.46910845116736555],[0.3909473930711751,0.572827528893934,0.42779613144408124,-0.9421422221849104],[-0.8842490671823474,0.32414691539613627,-0.00018236709627228453,-0.853323956545454],[0.5109282190206696,-0.22144539106336514,-0.5414193949368459,-0.9648739123419113],[-0.11350393305308115,-0.8110233065971575,-0.5190507576215178,0.22600339941514114],[-0.9576632177066845,-0.6696198080507607,0.9701699146366412,-0.22111313939124577],[-0.5963214987506773,-0.6468914906940187,0.7176396524878386,-0.11135992298005737],[0.4507507416406793,0.11605617044923444,0.1683944363278076,-0.41897741327381977],[0.8033333128820792,0.07099827035694783,0.7063024485960139,0.27652254345740457],[0.7858219575086598,-0.22802702189827928,0.8761225116769871,0.7441423381019028],[0.2970166135331678,0.5798569100399296,0.9215918270893633,-0.09569885511137044]],"WeightOutput":[[-0.487572690598816,-0.0028406300211678767,-0.06668611410798875,0.2949248419896622,0.5405149103175267,-0.5089885239173412,-0.561214374981679,0.4827964492751376,-0.6699422852751404,-1.275325753593606,0.772617142378689,-0.2743265627302557,0.09102817592210677,-0.4073267317472001,0.2255792027828154,0.4480852789568927,0.6687504789232523],[-0.9536083535022158,-0.9567846576352296,0.30147545742048687,0.3767121802527986,0.2925007606741442,-0.2879562417513363,0.2485865852940614,-0.07500050885872184,0.7154190075351421,0.009407208183841623,0.9332373260982456,0.8462720740074832,0.05893433441508167,0.5240928323304753,-0.9311479964236623,0.4764630677027197,0.2002940983928408],[0.34139901367204906,-0.021941531141627876,0.04768555548964608,0.3642501301359331,-0.20451987152758302,0.31863815813209806,-0.5111490361404782,-0.6661812179264951,-0.14297746176299564,-0.3836091127803004,-0.014123708272638424,-0.7355324914369206,-0.25693248648950884,-0.3486345891228758,-0.703484998385936,0.13530049273108857,0.4372294890168593],[-0.824555793666742,-0.7668871285623374,-0.8011827164729355,0.7814356208664786,-0.32115293163538355,-0.7814014145778768,-0.3328773072449149,-1.497440289608669,-0.8479485195438893,-0.005159699632753939,0.5406149239387454,0.9925582212548856,0.1705394262299813,-0.41556642077331324,-0.8079167245468057,-0.8465430795838401,-1.0568862546762905]],"ErrOutput":[-0.6977060865558534,0.5306863502276274,0.1356904463242008,0.00048396530657966437],"ErrHidden":[-0.04885884746865414,-0.1173835704690793,0.05942619379683025,0.012187852238779412,-0.035125931095138,0.05091865830410414,0.11631503051204516,-0.08255267058944958,0.19086800485254415,0.19181685484535585,0.009428766961361506,0.14051710692564062,-0.009694447301096896,0.13267006724027414,-0.1584540046200874,0.008197809046375761,0],"LastChangeHidden":[[1.6540067780319882e-32,2.6397948177390537e-33,2.81181152265438e-33,5.513355926773295e-35],[0,0,0,0],[0,0,0,0],[-1.9065035309544272e-79,-3.0427796354032656e-80,-3.2410560026225255e-80,-6.355011769848091e-82],[0,0,0,0],[0,0,0,0],[0,0,0,0],[0,0,0,0],[-1.7059786415621576e-109,-2.7227419119332035e-110,-2.900163690655668e-110,-5.686595471873858e-112],[0,0,0,0],[-4.533647078514722e-44,-7.235700734033807e-45,-7.707200029853302e-45,-1.511215692204852e-46],[-5.739419257085042e-118,-9.160113134307726e-119,-9.75701273704457e-119,-1.9131397523616807e-120],[-1.984449532764501e-77,-3.167181454292144e-78,-3.3735642056996516e-78,-6.61483177588167e-80],[0,0,0,0],[0,0,0,0],[0,0,0,0],[0,0,0,0]],"LastChangeOutput":[[4.5284386678205006e-35,-0.034522032646565344,-0.034522032646565344,2.3254218947916463e-81,-0.034522032646565344,-0.034522032646565344,-0.034522032646565344,-0.034522032646565344,2.9537009872015793e-112,-0.034522032646565344,1.8240736477455394e-46,1.0182861912509189e-120,1.0314901171420686e-78,-0.034522032646565344,-0.034522032646565344,-0.034522032646565344,-0.034522032646565344],[-7.75471992143648e-35,0.029179023281022794,0.029179023281022794,-3.9821662202095084e-81,0.029179023281022794,0.029179023281022794,0.029179023281022794,0.029179023281022794,-5.058062075607776e-112,0.029179023281022794,-3.1236329546672546e-46,-1.7437630919306913e-120,-1.7663741406077736e-78,0.029179023281022794,0.029179023281022794,0.029179023281022794,0.029179023281022794],[9.559017357156835e-36,0.004464712613339984,0.004464712613339984,4.9087003017144535e-82,0.004464712613339984,0.004464712613339984,0.004464712613339984,0.004464712613339984,6.234925782510419e-113,0.004464712613339984,3.8504113557134555e-47,2.1494859687269345e-121,2.1773579497858855e-79,0.004464712613339984,0.004464712613339984,0.004464712613339984,0.004464712613339984],[1.2920457819574748e-40,6.503030545449272e-8,6.503030545449272e-8,6.6348509294996615e-87,6.503030545449272e-8,6.503030545449272e-8,6.503030545449272e-8,6.503030545449272e-8,8.427445266724103e-118,6.503030545449272e-8,5.204413344729638e-52,2.9053554099795592e-126,2.9430286081928194e-84,6.503030545449272e-8,6.503030545449272e-8,6.503030545449272e-8,6.503030545449272e-8]],"Regression":false,"Rate1":0.25,"Rate2":0.1}
34979110888e-7,-1.2093841293896475e-7,-0.0000022132224968542926,-0.0000011885370998397977,-0.000001360684915470998,-5.1216724787112446e-8,-0.000001592891124904638,-4.957186584531414e-8,-0.00000227690635710797,-0.0000012734259473093853,-0.000002138941234865141,-0.0000024479554715661293],[8.426364999677621e-8,2.850973392582787e-7,4.999372089438802e-7,2.530346461029029e-7,6.238127133162498e-7,6.738238231885696e-8,1.898474698286228e-8,5.281201903204066e-7,3.5731234874043984e-7,3.0438089740016785e-7,2.4175720780694076e-8,4.4556420768220064e-7,2.3652244180139282e-8,5.618900878920377e-7,3.118389933340368e-7,5.377281742270541e-7,6.372895205332147e-7],[9.051821779022257e-11,-2.1215510566447616e-10,-3.8513628401177065e-10,-2.9269734593029074e-10,1.1137353971863885e-9,-9.877387806652063e-10,-1.193667324601845e-9,-2.65265884660018e-10,2.079266847149729e-10,5.241058998639378e-10,-1.1954358573477785e-9,4.762251357691686e-10,-1.2097026035541092e-9,8.660507981135168e-10,4.447432000825164e-10,-8.479328583311602e-11,-1.5102014499145014e-10]],"Regression":false,"Rate1":0.25,"Rate2":0.1}
